午餐会 -0.068662 0.038652 0.001956 0.018981 -0.049329 0.109206 -0.067834 -0.239201 -0.080601 0.044367 0.027852 -0.072258 -0.001966 0.078481 0.051000 -0.033766 -0.089115 0.007213 0.156439 -0.094386 0.028429 -0.042871 -0.088900 -0.013160 0.139731 -0.020979 -0.067476 0.006373 -0.040776 0.011579 0.177867 0.042105 -0.132389 0.058396 0.124025 -0.125117 -0.093877 0.011297 -0.073649 -0.004743 -0.079941 -0.119070 -0.088171 -0.017425 -0.075075 0.111203 0.102535 0.041421 -0.062677 -0.043254 0.021026 0.006943 -0.008095 0.061856 -0.076054 -0.024358 0.014381 0.146867 -0.054625 -0.078131 -0.045653 -0.157389 -0.048824 0.029837 -0.003685 0.085341 0.012889 -0.097008 -0.105064 0.043117 0.057839 0.048298 -0.024419 -0.059672 0.078047 0.069890 -0.095233 0.005806 0.003022 0.078307 0.047945 0.003481 -0.002920 -0.087244 -0.031887 -0.137788 -0.041470 -0.099628 0.017794 0.104928 -0.023713 0.067976 -0.012532 0.072018 0.069329 -0.040171 -0.134657 0.002692 0.018264 0.058857 -0.035954 0.040833 0.007568 0.032888 0.118047 -0.053755 0.030564 -0.029191 0.022194 -0.102703 -0.059756 0.048124 0.043488 -0.010069 0.075328 -0.041724 0.063939 0.039502 -0.075505 0.027888 -0.020723 -0.038079 -0.029393 -0.044892 0.054835 -0.013669 0.074519 -0.068456 0.112773 0.039989 -0.150842 0.011808 0.018484 0.078043 -0.028032 -0.020080 -0.079636 -0.030920 0.171550 -0.066625 0.017952 -0.099911 -0.034398 -0.051962 -0.067871 0.060821 0.084156 -0.077053 -0.157527 0.013981 0.061557 0.010540 -0.075841 0.035900 0.057386 -0.070650 0.023078 -0.046918 -0.040415 -0.121257 0.085794 -0.017681 -0.017427 0.037709 0.092522 -0.009765 -0.062645 0.036727 -0.015964 0.015008 -0.016412 0.017829 0.035172 0.024986 0.038035 -0.042643 0.109068 -0.024292 0.099810 0.094873 0.055703 0.036513 0.100452 0.136217 -0.052547 0.039114 -0.015760 -0.058347 0.035974 0.001113 0.121238 -0.039124 -0.129704 -0.019036 -0.015262 0.011304 0.020320 -0.096968 0.025726 -0.094278
西红庙 0.075216 0.021728 -0.120585 0.101234 0.024693 0.128186 -0.137512 -0.025366 0.006807 -0.072424 0.050039 -0.082311 -0.021703 -0.020738 -0.027350 -0.125876 -0.029113 0.056045 -0.026644 0.099535 -0.116340 0.005430 -0.009215 -0.056151 0.060322 0.038525 0.152124 0.004359 0.012900 0.019361 -0.051343 0.035998 0.016240 -0.012539 0.025322 0.068164 -0.029335 -0.004393 -0.044321 -0.016312 0.045492 0.050427 -0.103280 -0.041188 0.014898 -0.049949 -0.013941 -0.014310 0.044285 0.054316 -0.053003 0.033528 -0.052000 -0.074107 -0.032655 -0.023485 -0.164988 -0.016039 -0.052165 -0.118506 -0.078698 0.034436 0.069883 -0.001300 0.080186 0.026834 -0.160206 0.013990 -0.120988 0.009989 -0.056291 0.155369 0.070692 0.057511 -0.004138 0.067556 0.016823 0.080542 0.003684 0.095783 -0.031959 -0.013545 -0.141147 -0.065282 0.120700 -0.171617 0.027791 -0.059974 0.099569 -0.000133 0.038632 -0.083908 -0.014508 -0.044014 0.098254 0.037542 0.056559 0.045152 0.084583 -0.007909 0.123250 0.093113 -0.097780 -0.060453 0.055767 0.085434 -0.049600 0.088796 0.088100 -0.037651 0.019219 -0.030647 -0.041179 0.063713 -0.068574 -0.031448 0.012737 -0.005314 -0.026790 0.056125 -0.022883 -0.020290 -0.057413 0.070404 0.094428 -0.042697 0.045310 0.077248 0.019540 -0.019611 0.038295 -0.034304 -0.130370 0.045469 0.075564 -0.006021 -0.111313 -0.058016 -0.047261 0.002087 0.006982 0.111397 0.142127 0.025135 -0.069986 0.034495 0.112119 0.006644 0.036176 0.072223 0.012954 -0.058158 -0.153815 -0.031197 0.000586 0.099427 -0.006782 0.098538 0.118327 -0.109855 0.074523 -0.056212 -0.031610 0.002310 0.052788 -0.070294 -0.027645 -0.074143 0.077770 -0.015137 -0.051006 -0.023844 0.104108 0.106826 -0.003371 -0.056297 -0.134692 -0.078862 0.011841 0.000040 0.041928 -0.070008 -0.064691 -0.077352 -0.069894 0.039809 -0.000495 0.009503 -0.018754 -0.097257 -0.002695 0.096223 -0.152184 0.253761 0.009383 -0.072703 -0.020750 -0.023047 -0.001496 0.023400
银行担保 0.112975 0.038483 0.004365 0.040772 -0.147109 0.003870 -0.015050 -0.077319 -0.111126 0.020161 -0.094328 -0.040327 0.021586 -0.077863 0.102627 -0.100328 -0.015392 0.000837 -0.012477 0.033762 -0.027628 0.010177 0.024210 0.139064 -0.004234 0.033290 0.110185 -0.044716 0.071849 0.044547 0.046687 0.037414 -0.152806 -0.008204 -0.068997 -0.030079 0.064869 -0.069475 -0.222064 0.087641 0.015623 -0.015399 -0.028867 0.076204 -0.016811 -0.043338 -0.016375 0.028917 0.073044 -0.076721 -0.011282 -0.032553 -0.060786 -0.071592 -0.097520 -0.052884 -0.008509 0.112547 0.001210 -0.041229 0.043674 0.035130 0.087865 -0.122061 -0.007484 0.026341 -0.048112 -0.076131 0.101304 -0.154075 0.008777 -0.007455 0.005158 -0.064470 0.008536 0.073898 0.060431 -0.071171 0.014750 -0.035088 -0.094213 -0.101527 0.056793 0.005966 -0.084752 -0.045544 0.032620 0.093777 -0.181556 0.052880 -0.018762 0.055837 -0.038792 -0.093862 -0.038243 -0.052604 -0.009202 0.059273 0.018261 -0.113781 0.084002 -0.081499 0.091183 -0.031993 0.039732 0.014032 0.138285 -0.032791 0.084675 0.025166 -0.058029 0.007452 -0.020193 -0.070530 0.014399 0.018984 0.028766 -0.125199 -0.028797 -0.041677 -0.026934 0.039082 0.060499 0.063914 0.099680 0.211986 0.098151 0.051541 -0.053377 -0.024781 -0.076790 0.000475 0.027537 0.063294 0.069619 0.121042 -0.032790 -0.144870 -0.012769 -0.136599 0.034089 0.121043 0.066555 -0.019764 -0.053804 -0.040012 -0.044327 0.093057 -0.103222 -0.039553 -0.003958 0.006198 0.015406 0.056962 0.052272 -0.072491 -0.068910 0.132141 -0.048858 0.021628 0.065523 -0.003949 0.023700 0.123135 0.036168 0.072514 -0.031365 -0.057712 0.027020 -0.068734 -0.040546 -0.014049 0.151302 -0.029610 -0.020679 -0.081156 -0.007406 0.116467 0.080552 -0.051460 -0.019194 0.076374 0.082635 0.020141 0.143519 0.040339 0.124316 0.000900 0.003159 0.018070 0.031587 0.050386 -0.026184 -0.056560 0.016478 0.005940 0.032288 -0.054161 -0.151346 -0.088725
羊崽 0.047388 0.071231 -0.092071 -0.009103 -0.049781 -0.020305 0.125056 0.104885 0.019599 -0.022902 -0.050130 -0.088278 -0.135542 0.036078 0.064732 0.023322 -0.176067 -0.089706 -0.045220 -0.095492 0.030260 -0.075236 0.091859 0.038582 0.052271 0.044669 0.145366 0.018346 -0.009206 -0.098926 -0.095893 -0.070700 -0.070797 0.041365 -0.020973 0.019513 0.044347 -0.054763 -0.032095 0.065963 0.025648 0.057473 0.003310 0.009852 -0.124327 -0.025853 -0.048768 -0.128906 -0.011705 0.095815 -0.000144 0.021719 0.105273 0.007556 -0.070132 -0.063443 0.006326 0.066429 0.023760 -0.042313 0.009367 -0.062829 0.035585 0.033074 -0.091959 -0.003138 -0.103118 -0.064908 -0.026751 0.025572 0.014803 -0.016953 0.016020 0.087099 0.003116 -0.018466 0.067656 0.002648 0.002240 0.074153 0.020011 -0.022381 0.030577 0.055573 0.009183 0.056507 0.019380 0.034079 0.055741 0.110988 -0.212576 0.015047 0.077558 0.043037 0.015669 0.121050 0.041174 0.080533 0.008351 0.007370 0.080112 -0.033324 -0.030109 0.027965 -0.000386 0.159295 -0.143824 -0.000503 0.051068 0.061193 -0.072985 -0.193022 0.009528 -0.087353 -0.049315 0.013964 0.118501 -0.039402 0.077506 -0.095671 -0.107262 0.047501 -0.017546 0.105504 -0.055169 0.041950 0.139716 0.094040 0.050438 -0.031095 0.005945 0.097197 0.034967 -0.037659 0.081566 0.126790 0.024899 0.024496 -0.076685 0.024185 -0.036327 0.011796 -0.022953 -0.022221 -0.023951 0.034229 0.009121 0.041417 -0.137556 -0.077876 -0.020562 0.156630 0.071764 -0.030673 0.088093 0.097896 0.043441 0.134256 -0.086905 -0.022232 0.111329 0.004369 0.022084 -0.022957 0.000574 -0.108745 -0.141563 0.013899 0.009925 -0.061173 0.235648 0.006037 -0.000199 -0.026948 -0.037137 -0.095438 -0.126161 -0.103099 -0.029155 0.068995 -0.072096 -0.145212 -0.036776 0.026488 0.041387 -0.046369 -0.052067 0.024348 -0.015268 -0.008316 0.019318 -0.016353 0.079132 0.014351 -0.015723 0.000607 -0.005694 -0.000708 -0.053751 0.072633
飙客 -0.003994 -0.015934 -0.134246 0.012079 -0.060532 -0.057804 -0.034865 -0.039771 -0.011408 0.027780 0.096618 0.205799 0.115201 0.153976 -0.021473 -0.034369 -0.049560 -0.049534 -0.089827 -0.035658 -0.053610 0.000382 -0.047835 0.007137 -0.076204 0.001172 0.025225 -0.006391 -0.025721 0.059424 -0.034570 -0.096892 -0.036319 -0.031278 -0.119495 -0.011348 -0.004524 -0.069732 -0.040509 -0.014939 -0.065917 0.111592 -0.092727 -0.013063 0.084316 -0.037483 0.066004 -0.127017 0.055798 0.118086 -0.022488 -0.137266 0.049528 -0.049724 -0.028541 0.047459 -0.014449 0.052089 0.110763 -0.020710 -0.060143 0.008487 0.024848 0.052151 -0.019479 0.003192 0.011924 0.013165 -0.168742 0.041229 -0.087138 -0.013969 0.008162 0.093504 0.029275 0.000475 -0.007138 0.034228 -0.064579 0.058717 0.082154 -0.033585 -0.080745 0.126553 -0.067654 -0.034352 0.102730 -0.009722 0.134491 0.154835 -0.014932 0.028816 -0.231467 -0.000309 -0.136213 0.134136 0.002552 0.084521 0.088372 0.006915 0.058944 0.034574 -0.034976 0.091901 0.059456 0.157629 0.045756 0.037776 -0.126798 0.034706 -0.038779 0.039426 0.072737 -0.047917 -0.066487 0.074646 -0.024926 0.051498 0.028688 -0.122416 -0.004422 -0.062487 0.025805 0.096754 -0.056737 -0.025954 -0.088268 0.045995 0.031719 -0.011986 0.012226 0.118879 -0.061835 0.052107 0.076097 0.010288 -0.056194 -0.030563 -0.014238 -0.032944 -0.043578 -0.008489 0.058727 0.025099 0.005357 -0.005621 0.016233 -0.005051 0.061755 0.017837 0.069781 0.013845 0.120341 0.104055 -0.040011 0.041619 0.151132 0.029212 -0.017822 0.008628 -0.030637 0.003366 0.005256 -0.065289 0.187852 0.022620 0.086246 -0.015557 0.075810 0.053533 -0.073471 0.133746 -0.010334 -0.072797 0.030453 0.129232 0.118416 -0.009627 -0.014793 0.048663 -0.037355 -0.000519 -0.063858 0.141555 -0.011730 0.039240 -0.011874 0.085901 -0.091121 0.106644 -0.015254 -0.064751 -0.006299 -0.086908 -0.071255 -0.040619 -0.079766 0.016486 -0.096033 -0.024772
巨人症 0.080335 -0.003361 0.038405 -0.009176 -0.039564 0.013235 0.047531 0.001090 0.043190 -0.057299 0.075461 0.012404 0.016786 -0.051263 0.080205 -0.121811 0.066198 -0.013863 -0.082878 -0.120213 0.073553 0.113704 0.039511 -0.051334 -0.043889 0.018133 0.044751 -0.123265 -0.046177 -0.013298 -0.032120 0.097379 -0.045678 0.037715 0.042935 0.011481 0.036127 0.006314 0.007107 0.079904 0.146834 0.051080 0.103337 -0.062311 -0.018513 -0.056570 0.020750 -0.058759 -0.105906 -0.010569 0.074547 0.048455 -0.011553 0.115447 -0.060639 0.116435 0.005968 -0.019503 0.010880 0.035078 -0.133980 -0.172031 -0.069175 -0.036945 0.050502 -0.035641 0.005035 0.018721 -0.109193 0.002511 -0.007127 0.036717 0.067471 -0.072880 0.041009 0.070084 -0.033153 -0.031445 -0.031684 0.038590 0.096688 0.090020 -0.014362 -0.090357 0.053438 -0.103186 -0.062761 0.156278 0.001682 0.043070 -0.005504 0.030041 -0.049050 -0.040269 -0.008942 0.054953 0.037268 0.000880 -0.024032 -0.082868 -0.051243 -0.026417 -0.023573 -0.033523 0.028684 0.168385 0.069909 0.024509 -0.061508 -0.170408 -0.068393 -0.019600 0.145717 -0.086276 0.017047 -0.108225 -0.018361 0.010475 0.071417 -0.172940 -0.037610 -0.066621 -0.026964 -0.009205 0.019871 0.015718 0.078293 0.040459 -0.077730 0.045582 0.000754 0.019136 0.178652 -0.124427 0.037132 -0.012793 -0.162967 -0.042766 0.059748 0.082521 -0.050585 0.060091 -0.002432 0.045532 -0.050902 0.156815 -0.058778 0.096254 -0.120189 -0.016818 -0.067008 -0.074462 0.070032 -0.039123 0.010232 -0.058325 -0.040649 0.017121 0.019076 -0.014668 -0.008868 -0.086292 0.082359 -0.030252 -0.048146 -0.024391 0.084391 -0.004370 0.111253 0.127797 0.160908 -0.107031 0.038005 0.033678 -0.061478 -0.018487 -0.094104 -0.001546 -0.121067 -0.011754 0.068753 0.018789 0.101015 0.017464 -0.019349 -0.185950 -0.048295 0.121183 0.029699 0.028982 -0.029208 -0.082421 -0.055682 -0.073928 0.109918 -0.069124 0.019690 -0.005295 0.048749 0.071516
豚鼠 0.010342 0.001436 -0.030929 0.088049 0.019938 0.063642 0.016124 0.050764 -0.021482 -0.052793 0.044379 -0.088915 -0.087134 0.036941 0.100460 -0.066414 -0.086703 -0.012472 0.103102 -0.156249 0.190855 -0.039039 0.008711 0.011653 0.002428 0.002390 -0.020002 -0.181367 -0.044724 -0.104890 0.125222 0.052500 0.057669 0.029989 0.059920 0.087560 -0.105686 -0.030793 0.115111 -0.003895 0.010394 0.088381 0.000362 0.013721 -0.074502 -0.085818 -0.002743 -0.033149 -0.087781 0.042675 -0.011899 0.041739 0.077431 -0.012565 -0.023609 0.083275 0.064301 0.005353 0.081258 0.070733 0.016077 -0.029272 0.020515 -0.049429 -0.020766 -0.059811 0.011056 0.086478 -0.017337 0.064759 -0.070743 -0.034230 -0.035544 0.046797 0.038890 0.162558 0.057692 0.019559 0.042629 0.075400 -0.032643 0.216484 -0.053899 -0.080620 -0.063684 0.012855 0.044178 0.014936 -0.007827 -0.061560 -0.152694 0.070884 -0.103794 -0.072523 -0.059039 -0.005246 -0.062440 0.057227 0.000798 -0.033812 0.032501 0.020648 -0.011860 -0.020071 0.013488 0.063616 -0.047714 -0.036618 0.066882 -0.065499 0.076128 -0.095337 -0.077067 -0.031083 -0.007929 0.044950 0.108661 -0.030958 0.037172 0.014666 -0.182533 -0.029323 0.037037 0.023457 -0.100040 0.088541 0.038767 -0.017768 0.010532 0.017631 -0.010186 0.089413 0.133526 -0.078833 -0.031333 0.036094 0.008135 0.022073 -0.017406 0.072030 -0.020961 0.000616 -0.032627 -0.103392 -0.026783 0.082720 -0.023877 0.090692 -0.162573 -0.039927 -0.167642 0.041628 0.128478 -0.015208 0.183710 0.118579 0.045714 -0.001058 -0.085831 0.004807 0.006136 -0.094583 0.049463 -0.041377 -0.003057 -0.154697 -0.032166 -0.058200 -0.049095 0.040985 0.156444 -0.030605 -0.049187 0.039377 -0.121454 -0.066392 -0.005969 -0.022483 -0.109451 -0.013548 -0.035113 -0.102733 0.064042 0.070072 0.062200 0.009382 -0.004206 0.112248 -0.095114 0.033247 0.070204 -0.004676 0.031831 0.098403 -0.049379 -0.049389 -0.025639 -0.109759 -0.006245 0.060156
牵红绳 -0.108232 -0.020099 -0.059995 0.027668 0.052434 -0.104890 0.133064 -0.055137 0.025095 0.035800 0.093466 0.094587 -0.064134 0.104224 0.026571 0.075217 -0.047238 -0.094967 -0.070238 0.038860 0.047062 0.012082 -0.078970 -0.011954 0.036199 0.017070 -0.049832 0.093273 0.036231 -0.133917 0.055455 -0.103954 -0.000746 -0.044260 -0.079890 0.016543 0.024847 0.007799 0.039338 -0.039434 0.004711 0.061115 -0.096662 0.030404 -0.028699 -0.135332 -0.006078 0.036237 0.058946 0.138337 0.044021 -0.055131 -0.067512 -0.025739 -0.182247 0.030741 -0.039522 -0.022071 -0.043655 0.019197 -0.100259 -0.042554 0.059033 0.039258 -0.009314 0.098409 -0.022783 -0.002095 0.001397 0.073100 -0.068630 -0.095875 -0.000562 0.124621 0.074983 0.114641 0.046345 0.130269 -0.090567 0.063369 0.002693 0.171047 0.014230 0.180087 0.005145 -0.093670 -0.030480 0.090440 0.062582 0.148549 -0.045557 -0.042700 -0.093419 0.024250 -0.075006 0.060739 0.084931 0.006658 0.027347 -0.068541 0.086033 0.044798 -0.102220 0.028745 -0.000616 0.090034 0.004419 0.003996 -0.025921 -0.008168 -0.049056 -0.013379 0.066351 0.069108 -0.105348 -0.063890 0.072699 0.122077 0.023090 -0.104025 -0.023037 -0.067145 -0.021408 -0.077973 -0.012011 -0.002763 0.037434 -0.009786 0.155989 -0.069464 -0.045011 0.086944 -0.057953 0.109805 0.102544 0.014134 0.012020 -0.021257 -0.039039 -0.014585 -0.013069 0.106710 -0.060734 0.021527 -0.032858 -0.026612 -0.106323 0.000112 0.067786 -0.102452 0.001370 -0.042164 0.012323 -0.090134 0.005281 -0.003468 -0.002486 0.094760 -0.049946 0.069321 -0.028341 0.073221 0.051704 -0.050472 0.126714 0.024069 0.028014 -0.069167 0.072713 -0.007912 0.083047 0.050683 -0.027885 0.049816 -0.009123 0.011870 0.033102 -0.047491 0.005008 0.091488 -0.021257 -0.060235 0.020068 0.145300 0.002972 -0.101033 0.002903 0.047481 -0.132323 0.138876 0.135171 0.133253 -0.057074 0.063703 0.106032 0.040588 -0.163993 0.027620 -0.005518 -0.057169
打群架 -0.039937 0.070527 -0.099003 0.133563 -0.005191 -0.031404 0.071318 0.077929 -0.069603 0.023876 -0.020600 0.156426 -0.041385 0.095669 0.057477 0.019898 0.035879 -0.116130 -0.080956 -0.102741 0.021850 0.056454 -0.045075 -0.075547 0.038683 -0.007986 -0.070661 -0.014944 -0.122247 -0.034416 -0.005804 0.017172 0.028855 -0.075480 0.060971 -0.026450 0.015329 0.018704 -0.091010 0.064576 0.059043 0.106429 -0.048730 0.008639 0.052623 0.035572 -0.010120 0.040032 0.068494 0.025779 -0.106583 -0.110379 -0.004180 0.047313 0.028437 0.070135 -0.042051 0.045992 0.061194 -0.034110 -0.038634 -0.011603 -0.054509 -0.059051 0.142693 -0.126369 -0.076199 -0.061712 -0.019977 0.061181 -0.048024 -0.014846 -0.026326 0.137021 0.032928 -0.004008 -0.009862 0.174800 -0.087498 0.033577 -0.160028 0.036499 0.099298 -0.053014 -0.028101 -0.162490 -0.089510 -0.017099 0.180247 0.049907 -0.046847 0.010807 -0.086382 0.021770 -0.007073 -0.072539 -0.063828 0.051730 -0.124401 0.035359 0.135213 -0.048802 -0.027061 0.024504 -0.048822 0.045195 -0.008869 0.215777 0.041532 0.114230 0.030444 0.119798 -0.038076 0.032655 0.033291 -0.027730 0.089901 0.069396 -0.079330 -0.011985 0.071007 0.031306 0.015829 -0.065441 0.030329 -0.034353 -0.080214 -0.073618 0.044226 -0.059698 0.098986 0.066688 0.000559 -0.070585 -0.065746 -0.040905 -0.063177 -0.023813 0.053508 0.008957 -0.113252 0.030036 0.007807 0.021549 -0.034337 0.024458 0.079954 -0.008911 -0.087059 -0.068095 0.020369 0.007213 -0.085822 -0.074121 -0.061671 0.036221 0.099459 0.068662 0.150903 0.046683 0.110552 -0.043838 0.067712 -0.087581 0.094702 -0.051846 0.048825 0.037208 0.020429 0.051615 0.002921 0.003015 -0.039151 -0.029050 0.020159 0.032912 -0.007634 -0.085922 -0.169428 0.012350 0.140405 -0.055163 0.043958 0.046992 0.093585 0.095609 -0.100741 0.170247 0.001327 0.016121 -0.038370 -0.040831 -0.067924 -0.022189 -0.004229 0.073856 0.034974 0.041964 -0.081490 0.069284
庇佑 0.166032 0.013688 -0.145486 0.102175 -0.029543 0.022165 0.016431 0.062236 -0.024878 0.064355 0.095038 -0.001673 0.078523 0.016379 0.088324 0.010192 0.033245 -0.036502 0.093479 -0.017605 -0.140397 -0.047555 0.013869 0.035002 -0.008398 0.067344 0.006715 0.070134 0.030613 -0.070455 -0.029040 -0.150942 -0.042788 0.028494 -0.080386 -0.152092 -0.031130 0.114073 0.135799 0.049492 0.056352 -0.000418 0.065868 -0.016665 -0.002254 0.043611 -0.029085 0.050256 -0.089209 0.040985 0.091163 -0.062848 -0.008397 0.031218 -0.096798 -0.092909 0.065911 0.048289 -0.050241 0.062294 -0.091719 -0.095403 -0.058251 -0.035056 0.037699 -0.002544 0.003645 0.025934 0.012001 0.042971 -0.051144 0.023170 0.012849 0.068739 0.059552 -0.048620 0.028983 -0.025903 -0.066504 -0.021404 0.010518 0.060898 -0.087475 0.030730 0.227966 0.035445 -0.107124 0.000307 -0.006829 0.066190 -0.015369 -0.078790 0.005357 -0.020824 0.082350 0.128427 -0.059018 -0.083159 -0.010210 -0.020507 -0.134914 -0.013918 -0.014487 -0.099079 -0.012273 -0.029540 -0.019825 -0.003057 -0.096993 0.197990 0.055530 -0.082330 0.072180 0.043715 -0.060630 0.013316 0.057381 0.070848 0.110527 -0.109463 -0.015077 0.031146 -0.040507 -0.027321 0.037783 -0.056723 0.095869 0.023158 -0.034759 -0.023845 -0.129782 0.029456 -0.075236 -0.020185 0.031228 -0.011048 0.033838 -0.068439 -0.114406 -0.006593 -0.025962 0.087518 0.119686 0.063937 0.056876 -0.040822 0.124812 0.002059 -0.167902 -0.068006 0.008456 -0.055495 0.149649 -0.091519 0.004013 0.029065 0.058941 0.198288 -0.088450 0.118417 0.114676 -0.033075 0.110510 -0.008603 -0.017483 0.004905 0.004250 -0.029228 -0.012778 -0.117057 0.022454 0.073538 -0.029318 0.055035 -0.127738 0.060371 -0.005130 -0.031356 0.043328 0.025684 -0.138548 0.008592 -0.041908 0.018495 -0.015665 -0.130102 0.100624 -0.008154 0.012184 -0.041114 0.040365 -0.009472 -0.056338 -0.128530 0.021020 -0.007073 0.035258 0.001626 -0.032333 -0.071224
延禧宫 0.059259 -0.075100 -0.047122 0.006285 -0.023252 0.118424 0.076612 -0.014033 0.117256 -0.005334 0.074912 0.019537 0.077604 0.020862 -0.060778 0.029057 0.166754 0.031713 -0.057244 0.018237 0.059936 -0.113698 -0.060655 0.022011 0.023741 0.000326 0.128875 0.014382 -0.148665 -0.036023 -0.111800 -0.020333 -0.041302 -0.093701 -0.015348 0.066650 -0.004883 0.033149 -0.070760 -0.064960 -0.094194 -0.072977 0.013947 -0.031677 -0.045129 0.087044 0.035539 -0.041655 -0.077716 0.119278 -0.060831 -0.082405 -0.122411 -0.026574 -0.003122 0.067283 0.043155 -0.044575 -0.021865 0.033554 -0.014061 0.004644 0.023307 0.096915 -0.005669 0.097301 -0.039345 0.032842 -0.022010 0.100821 0.085808 0.086835 -0.038509 0.039160 0.009671 0.025702 0.027556 0.062338 0.030845 0.097232 -0.069944 0.021733 -0.145995 -0.038652 -0.020476 0.102587 -0.080141 -0.037210 0.091034 0.117790 -0.002632 0.007477 -0.087697 -0.071715 -0.099807 0.112768 0.110011 -0.023141 -0.087219 -0.081888 -0.023358 0.029065 -0.050060 -0.037362 0.061982 0.037735 0.078359 0.015231 0.010310 0.031844 -0.083445 -0.039695 0.043580 -0.097748 -0.020385 0.020807 0.054984 0.010523 -0.162386 -0.033951 -0.045732 -0.097814 -0.089963 -0.066571 -0.001691 -0.055674 0.014764 -0.040484 0.150862 -0.039125 -0.129158 -0.084212 -0.047239 0.148609 0.036313 0.042429 -0.017430 0.009173 -0.136267 -0.077400 -0.001774 -0.072954 -0.026024 -0.005754 0.037512 -0.073360 0.065767 0.082885 -0.033971 -0.032466 -0.147781 -0.066763 0.034463 -0.065912 0.090754 0.012133 -0.037997 0.011466 0.000195 -0.105680 -0.023699 -0.094732 0.087944 -0.031757 0.107765 -0.011432 0.014449 -0.042573 -0.023284 0.013000 0.061380 -0.136902 0.031622 -0.079279 -0.016454 -0.009623 -0.098983 -0.016967 0.013173 -0.136323 -0.159180 -0.001169 0.170787 0.026472 -0.035002 0.043578 0.081568 0.020344 -0.064795 0.080413 0.065005 0.041243 0.005026 0.136017 -0.105784 0.031337 0.092382 -0.002742 -0.138765 -0.107731
树洞 -0.135094 0.049779 -0.030462 -0.110746 0.005894 0.099860 0.021948 -0.078455 0.075153 -0.130240 -0.031913 -0.033076 -0.116962 0.005559 0.076155 -0.004999 -0.085191 -0.074597 -0.005075 0.146961 0.012598 -0.031366 -0.033856 0.012222 -0.054965 -0.024046 0.062933 0.011055 -0.115162 -0.121101 0.010712 -0.121159 0.014373 -0.045950 0.134867 0.039961 -0.140365 0.004020 0.028098 0.077544 -0.071379 -0.009729 -0.038630 0.028197 -0.017021 -0.113401 -0.047114 0.091898 -0.002437 0.085882 -0.076974 -0.002913 0.036295 -0.109979 0.075283 -0.017336 -0.059084 0.118283 0.039354 0.003814 -0.029287 -0.055676 0.078803 0.108823 -0.113681 -0.007966 -0.153970 -0.002122 -0.022817 0.204103 -0.066543 0.032784 -0.052658 0.025355 0.097379 0.074961 0.083262 0.044197 0.057906 -0.081649 -0.023117 0.079616 0.072706 0.100248 0.067249 0.092316 -0.071132 -0.045588 0.093143 0.227029 -0.054819 -0.082633 -0.005820 0.078708 -0.037988 -0.100025 0.028374 -0.022966 -0.093306 -0.035065 -0.064534 -0.000589 -0.080518 -0.006561 0.057063 0.077765 0.045473 0.020015 -0.040492 0.004122 0.102423 -0.049255 -0.059185 0.105644 -0.078946 0.056808 0.142202 0.067115 0.005959 -0.051649 -0.042552 0.073164 -0.084792 -0.086967 -0.083969 -0.000128 0.039152 0.030649 0.104801 0.009447 -0.056603 0.059402 -0.042969 -0.019832 0.046243 -0.010664 0.009159 -0.061755 -0.079262 0.008518 -0.054498 0.096381 -0.037117 0.054631 0.020042 0.011735 0.102381 -0.043625 -0.032143 -0.021010 -0.182996 -0.073450 0.124221 0.007358 0.090322 0.012205 0.004513 0.024217 0.012775 0.000321 -0.096637 0.062985 -0.004005 -0.074754 -0.031735 0.088681 0.014821 0.044445 -0.016274 0.051130 0.034837 0.065817 -0.014949 -0.074115 0.077311 -0.105034 -0.038694 -0.033863 0.059068 0.002534 0.020951 -0.118229 0.024288 0.055561 -0.041859 0.022701 -0.021233 0.088527 0.009220 0.020200 -0.023106 -0.055526 0.085247 -0.028135 0.133524 0.113944 -0.000660 -0.071301 0.020287 0.097968
心如止水 0.100112 0.087571 -0.135653 -0.075406 -0.045389 -0.081899 0.111827 0.048800 -0.015690 -0.065685 0.054660 0.107697 -0.083669 0.004928 0.111826 0.174174 -0.057592 0.045312 -0.031740 -0.070403 -0.016182 -0.074379 -0.012476 0.116755 -0.082642 0.046509 -0.020182 0.055168 -0.073647 -0.107869 -0.150132 -0.113243 0.021068 -0.041724 -0.014935 -0.088475 -0.030694 -0.094703 0.056872 0.000174 0.006304 0.046059 -0.056484 -0.025618 0.144416 -0.020709 -0.013160 -0.003209 0.032915 0.076876 0.077618 0.048423 -0.035452 0.053531 0.001598 -0.126751 0.006899 0.029810 0.033987 -0.002679 -0.139442 -0.132914 -0.028864 0.044059 -0.011363 0.141098 0.017202 -0.032476 -0.100745 -0.026539 0.044927 -0.021098 0.019096 0.037626 0.010143 -0.028820 0.068252 0.001880 -0.114838 0.046483 -0.079905 -0.049454 0.120843 0.035103 0.058458 -0.064188 0.043692 -0.016822 -0.142878 0.023891 -0.030518 0.047768 -0.007689 0.033288 -0.113936 0.019292 -0.068563 -0.038500 0.109547 -0.083593 -0.055917 -0.085541 -0.009259 0.047746 -0.139715 -0.040732 0.037871 -0.048491 -0.026540 0.062076 0.089039 -0.037793 -0.032552 0.024673 0.005181 0.029106 0.084457 -0.047542 -0.005532 0.043032 0.055980 0.089625 0.125813 0.073023 0.180252 0.004393 0.122839 0.132646 0.046774 0.045780 -0.156339 -0.021833 -0.130014 -0.013048 -0.023867 0.023359 0.102881 0.014701 0.037496 -0.041330 -0.015991 0.026018 0.024556 0.054680 -0.102030 0.006026 0.034232 -0.020807 0.056053 -0.127109 -0.049936 -0.135053 0.083203 -0.045262 -0.100831 -0.023117 0.044664 0.084624 0.009150 0.031180 -0.012821 -0.009434 0.007110 -0.035500 0.100410 0.025287 0.059244 0.010733 0.012231 0.155184 -0.083727 0.080241 -0.016667 0.084106 0.067425 0.020484 0.036685 0.062651 -0.048826 0.038493 0.026019 0.115359 -0.092648 -0.037753 0.024727 -0.013683 0.077608 0.099249 -0.063177 0.000980 0.108523 -0.070706 -0.061180 0.043634 -0.023241 0.063982 -0.004164 -0.057228 -0.058494 -0.146150
盐城 -0.019760 -0.077798 0.069822 0.083078 0.066635 0.113817 -0.004689 -0.030375 0.135513 0.050018 0.059269 -0.070249 0.072808 -0.107797 -0.046137 -0.018677 0.047182 0.133571 -0.080882 -0.102145 -0.063605 0.001897 -0.007861 0.050342 -0.125590 0.108721 0.078396 -0.048885 -0.042592 -0.047584 0.102809 0.049169 -0.122316 0.013519 -0.012837 0.039448 0.173817 -0.034830 -0.026623 -0.114656 0.066857 0.022924 0.004169 0.015272 0.022237 0.014673 0.056472 -0.102241 0.103028 -0.063093 0.003291 -0.073826 0.005159 0.015156 -0.001562 0.030126 -0.016444 -0.028495 0.184065 -0.156386 -0.071137 -0.031152 0.056704 0.031182 -0.066651 0.030100 -0.078569 -0.041839 -0.019277 -0.116389 0.051644 -0.066328 -0.112302 0.136357 -0.030356 0.069417 0.032266 -0.007804 0.045200 -0.087660 -0.025640 0.093355 -0.007741 0.147860 0.081630 0.005343 -0.143790 -0.108617 0.066909 0.033937 0.031455 -0.034685 0.002868 0.094219 0.061646 0.101941 -0.009460 -0.013344 0.112465 -0.040163 0.073928 0.011597 -0.072315 0.063925 -0.026618 -0.027777 -0.034741 -0.004289 0.185770 -0.058697 -0.005932 -0.087250 0.042053 -0.049000 0.077438 -0.018627 0.076607 -0.037047 -0.110073 0.003288 0.003700 0.200310 -0.000965 -0.092297 -0.010185 0.107694 -0.060282 0.033190 -0.010367 0.077363 0.039338 -0.048829 0.013728 0.048882 0.049074 0.034466 -0.090996 -0.048509 0.042901 0.079465 -0.032770 -0.047514 -0.012428 -0.006281 -0.156711 0.024359 0.089972 0.090451 0.006777 0.033498 -0.089217 0.040344 0.023164 0.007973 -0.012765 -0.007200 0.087538 0.032362 0.047914 -0.085493 0.004905 -0.006910 -0.012681 0.027256 0.078711 0.023412 0.105796 -0.104237 -0.011815 0.019135 -0.046443 -0.080915 0.062355 -0.060002 -0.037776 0.020889 0.028215 -0.114371 -0.000517 0.052175 -0.046013 0.120889 0.029011 -0.113503 -0.114485 0.044877 -0.034045 0.001070 0.094056 -0.110949 0.054099 0.060305 -0.097305 -0.029967 0.108436 -0.034487 -0.036822 0.121141 0.006658 0.022638
棉纺织厂 0.003305 0.025681 0.084272 -0.002543 -0.014521 0.025671 -0.174918 0.036502 -0.053558 0.112753 0.026586 0.011056 -0.003722 0.019529 0.040045 -0.002724 0.024412 0.146234 -0.132006 0.009115 -0.045848 0.077198 0.005332 -0.046345 -0.017078 0.008738 0.157506 -0.088236 -0.063133 -0.167128 -0.067106 0.062190 -0.100982 0.013658 0.017514 0.041794 -0.000689 0.060661 -0.094318 -0.037169 -0.007065 -0.025895 0.008042 0.029295 -0.041849 -0.027068 0.037694 -0.099776 0.099185 -0.051104 -0.112956 -0.073809 -0.017088 -0.067761 -0.077317 0.114340 -0.062197 0.064504 0.014546 -0.069011 0.064258 0.044475 -0.036295 0.031313 -0.038080 0.020268 -0.206275 -0.093470 -0.097222 -0.055451 -0.007469 -0.042623 0.037945 0.110703 0.004222 0.146988 -0.067491 0.094472 -0.095208 0.027912 -0.062778 0.047183 -0.021935 0.093661 0.059555 -0.068147 -0.050595 0.078382 -0.024995 0.115496 -0.040403 0.036759 -0.017577 -0.008323 0.060616 0.134618 0.170173 0.035708 0.053665 -0.049106 -0.003284 -0.074079 0.074822 0.001161 0.058436 0.082621 -0.031436 0.205468 0.039145 -0.115368 0.062847 -0.045207 0.113618 0.011721 0.015160 0.056993 0.046205 -0.130904 0.001244 0.013553 -0.176525 -0.033659 -0.001689 -0.062808 -0.017988 0.140646 0.061068 0.024875 -0.001901 0.076209 0.034167 0.079654 0.024366 -0.004555 0.117440 0.085721 -0.008183 -0.003906 0.030631 0.028354 -0.010812 0.042316 -0.023551 -0.049664 -0.003247 -0.018660 0.085179 -0.007309 -0.101342 0.070523 0.063240 0.013973 -0.126061 0.020580 -0.165469 0.119595 -0.042270 0.041555 0.056904 -0.031202 0.115533 0.037055 0.028568 0.012853 -0.051279 -0.025682 0.120582 0.031992 -0.006309 0.017270 -0.001128 -0.012658 0.027131 0.015957 0.033770 0.072051 -0.112139 -0.073420 -0.035710 0.013985 -0.115765 -0.065496 0.049369 -0.001352 -0.070123 0.113516 0.034547 0.057721 -0.013617 -0.010188 0.019036 0.019838 -0.176764 0.012585 -0.025278 0.030482 0.079050 0.045757 -0.035169 -0.048947
和路雪 0.095247 0.047743 -0.059585 -0.044059 0.009862 -0.017533 0.002304 0.140216 0.074573 0.075365 0.046846 -0.087146 -0.073494 -0.063325 0.001390 -0.028726 -0.018192 -0.076056 0.026792 -0.043064 0.183439 -0.026598 -0.021896 -0.042262 -0.080409 0.089197 0.096971 -0.035415 -0.136459 -0.011809 0.112740 0.114016 0.095267 0.122442 0.006885 -0.073145 -0.099844 -0.044631 0.029457 -0.093347 0.037310 -0.003369 -0.093430 0.003266 -0.037687 -0.019788 -0.000239 -0.088775 0.047174 -0.017946 0.052690 0.007076 0.014634 0.034595 -0.061171 -0.050869 0.022234 0.041937 -0.097398 -0.003560 -0.093397 0.124816 0.021753 -0.054989 -0.064815 0.078272 -0.044010 -0.018174 0.011461 0.004707 0.033429 0.027020 -0.055632 0.075335 0.113002 0.106825 -0.147449 0.088280 -0.089628 0.064073 -0.084103 -0.085067 0.073236 0.027790 -0.132547 0.052353 -0.019271 0.069829 0.107202 0.037905 -0.084515 -0.124876 0.057063 -0.016502 0.042792 -0.029713 -0.008932 -0.036897 0.107420 -0.066175 0.031256 0.055475 0.125973 -0.013711 0.030613 0.011880 0.057928 -0.016141 0.071434 -0.098429 -0.152342 0.044239 0.036244 0.116940 -0.037281 -0.095455 0.012839 0.040383 0.045164 0.053105 -0.031582 0.055600 0.022756 0.082426 -0.171589 -0.008459 -0.081625 0.106895 0.051731 0.033746 -0.046417 0.036589 -0.023917 0.075217 -0.103926 -0.067690 -0.002829 0.087441 0.052234 -0.051275 -0.010891 -0.031081 -0.055112 -0.089721 -0.003240 0.064460 0.172750 0.081613 0.014573 0.025911 0.014912 0.037408 0.082106 -0.008316 -0.037214 0.071623 0.027723 0.103026 0.007848 0.036814 0.102048 -0.071012 0.126788 0.107201 0.051221 -0.072667 -0.014390 0.003690 0.015700 -0.117685 0.051120 -0.039150 -0.025160 -0.077350 0.030407 -0.023459 -0.003573 0.012813 -0.019528 -0.162318 0.151601 -0.097240 -0.036205 0.105003 0.053354 0.113197 -0.039904 0.012924 -0.024896 -0.015521 -0.023682 0.107289 -0.075625 0.038166 0.023362 -0.052400 -0.005649 -0.105835 -0.119248 0.064865
义愤填膺 -0.010517 -0.010467 -0.053692 0.112968 -0.129763 -0.094182 0.082594 0.105568 0.060922 -0.125216 0.042180 0.066458 -0.046458 0.014284 0.104075 0.047847 -0.125420 -0.065640 -0.060356 -0.011998 -0.059532 -0.075313 -0.053791 -0.132674 0.028625 -0.048936 -0.053394 -0.081525 -0.072435 0.002717 0.021122 -0.041434 -0.081768 -0.049476 -0.022599 -0.160444 0.082216 -0.055249 -0.018814 -0.033893 -0.022230 0.041106 -0.071446 -0.049342 -0.057774 0.101641 0.037444 0.058597 -0.033571 0.091533 -0.060039 0.133905 -0.111239 -0.033856 0.009793 -0.002615 -0.087936 -0.006526 0.008828 -0.029475 0.030763 -0.020351 -0.022685 0.087276 0.030546 -0.041180 -0.087017 -0.108800 0.023775 0.073810 -0.077253 -0.118459 -0.045100 0.128071 0.111479 0.106833 -0.042317 0.087772 -0.006562 -0.057640 -0.027560 0.047707 -0.036344 0.002235 -0.050650 -0.036207 0.180849 0.026012 0.040675 0.041566 -0.075206 -0.013698 -0.085080 0.042832 -0.004859 0.035295 0.001341 0.005355 -0.039703 -0.032007 0.007339 -0.054826 -0.039619 0.041814 -0.010728 0.079423 -0.020701 0.066255 0.033975 0.047955 0.001069 0.000456 0.066172 -0.045290 -0.005133 -0.083799 0.145585 0.033610 -0.029368 -0.191063 0.015920 0.024415 -0.022161 0.114908 0.105112 -0.017913 -0.061630 -0.015105 0.053197 -0.067292 0.021696 -0.057024 0.003239 0.023112 -0.000053 -0.179863 -0.122846 -0.186632 0.071037 0.031883 -0.150369 0.035703 -0.053907 0.054037 -0.181685 0.035632 0.076018 0.011813 -0.057075 -0.002298 -0.023072 0.031131 -0.060649 0.162495 -0.017553 0.073233 -0.041790 0.040644 0.019939 0.014433 0.034448 0.039063 0.002097 -0.003887 0.099934 -0.067708 -0.082085 0.043122 -0.025612 0.056320 0.017064 -0.057636 0.060787 -0.037918 0.026657 0.116983 0.053611 -0.010319 -0.117319 -0.027145 0.013725 0.129303 -0.036812 -0.028642 0.049864 -0.055749 0.001540 0.091220 0.117245 -0.006151 -0.037343 -0.020203 0.030960 0.034802 0.141336 0.176902 0.065230 -0.068547 0.026277 -0.017511
纱绢 0.087140 -0.041377 0.010628 0.018606 -0.067621 -0.092987 0.007115 -0.034740 0.057961 -0.028799 0.037400 0.011799 -0.099623 -0.011407 -0.042472 0.035002 -0.010909 -0.092398 -0.047106 -0.135935 0.100805 -0.052731 0.032311 0.087118 -0.027501 0.025589 0.128237 0.087693 -0.169754 0.002626 -0.068301 0.008542 -0.067983 -0.046028 0.005479 -0.056497 -0.011750 -0.015684 -0.108412 -0.095021 0.062593 -0.030498 0.153091 -0.115632 -0.034515 -0.056771 0.040377 0.014685 -0.007587 0.092731 0.073429 0.099454 0.100469 0.047839 -0.148588 0.081027 -0.042529 0.061592 0.014666 0.060421 0.030128 0.035877 -0.073463 0.087103 0.016909 -0.043683 -0.047647 -0.012967 0.040684 -0.032241 0.093403 0.027826 0.031062 0.116268 -0.019406 0.023297 -0.011487 0.075433 -0.034886 0.104453 -0.018873 0.185199 -0.204699 0.007158 0.022980 -0.057104 0.034686 0.044624 0.079008 0.067365 -0.025638 -0.087767 -0.017652 -0.013956 -0.025935 0.070326 -0.000774 0.094721 0.014844 -0.132373 0.027172 -0.107436 0.017575 0.034294 -0.003190 0.088770 -0.004721 0.137334 0.032153 -0.052993 -0.115338 -0.027784 0.090335 -0.063059 0.022338 -0.029645 -0.006766 -0.093514 0.094771 -0.031278 -0.076185 0.026642 0.092274 0.052288 0.065495 0.013858 0.080831 -0.035244 0.038228 0.037017 0.002976 0.017785 -0.083888 0.093158 0.026242 0.057598 -0.005944 -0.032072 -0.069258 -0.075354 -0.049053 -0.011670 0.146719 -0.084600 -0.058889 0.097182 0.101494 0.028919 -0.027574 -0.063219 -0.031810 -0.019056 0.199682 -0.172775 -0.003136 0.101076 0.031685 0.084612 0.015318 0.031860 0.070106 -0.010210 0.020967 0.041130 0.090304 -0.003237 0.001675 -0.059265 0.068885 -0.001625 0.161119 -0.118496 0.019193 -0.002067 -0.087108 0.014032 -0.037707 -0.049010 0.139584 0.012181 -0.033495 -0.094649 0.015892 -0.050695 0.051313 0.002570 0.044251 0.079643 -0.063695 0.103400 0.092877 0.031323 -0.104812 0.085359 0.068395 0.007417 0.032275 -0.046351 -0.081897 -0.101401
手帕 -0.081815 0.080755 -0.069929 0.030869 0.061819 -0.030732 -0.134473 -0.009522 0.094832 0.028778 0.080923 0.016822 -0.047694 0.021074 0.058261 -0.081113 -0.016204 -0.131309 0.070716 0.046997 0.012713 0.089620 -0.084741 -0.058289 -0.160915 -0.046223 0.038113 0.119741 -0.022980 0.003711 -0.040051 -0.029846 -0.001028 0.017628 0.018746 -0.010640 0.111636 -0.067912 -0.019114 -0.035548 -0.065678 -0.019090 0.062291 0.130416 -0.086423 -0.043474 0.022397 -0.020758 0.125286 -0.086003 0.048199 0.038366 -0.014384 -0.053472 -0.091464 0.005859 0.007771 0.007101 -0.038625 0.014075 0.069384 -0.035679 0.033344 0.021053 -0.009297 0.115771 0.022411 0.025393 -0.030208 0.053872 -0.003134 -0.126763 0.076168 0.104590 0.030049 0.160020 -0.089350 -0.004623 -0.128929 0.073747 0.177956 0.026383 0.042427 0.080515 0.111858 -0.037868 0.009855 0.026881 0.050706 0.125722 -0.113906 -0.006408 -0.002897 -0.084489 -0.131379 0.057439 0.008962 -0.105624 -0.111931 -0.101511 -0.000231 0.079260 -0.079478 0.073660 0.112962 0.102263 -0.131969 -0.026431 0.220592 0.017869 0.008298 0.093827 0.022517 0.034095 0.041917 0.096593 0.070661 0.039674 0.136560 -0.106219 -0.065234 0.012282 0.074009 0.074915 -0.044384 -0.090206 -0.055524 0.091520 0.161803 -0.038213 0.061235 -0.009755 0.006742 0.060969 -0.032546 0.059223 0.069111 0.001783 -0.153113 0.004080 0.018131 0.017507 0.061528 0.110830 0.031709 0.066706 -0.048642 -0.031886 -0.104437 -0.015686 0.031907 0.010605 0.051042 -0.017729 -0.078867 -0.005433 0.042324 -0.023213 -0.090257 0.014187 0.079824 0.014183 -0.061329 0.005060 -0.003205 -0.045789 0.028543 0.018143 -0.000883 0.021158 0.134809 0.009196 0.032371 0.024638 0.060755 0.019444 -0.065259 0.049554 -0.065509 0.062934 0.068048 -0.114346 -0.031084 -0.015015 -0.077428 -0.026467 0.100277 0.065123 -0.053669 0.162948 -0.024176 0.019927 -0.108349 0.078619 -0.050524 0.049205 -0.012481 0.002826 -0.038409 -0.040653
见鬼 -0.007863 0.035665 -0.048964 0.012340 -0.131138 -0.009121 0.081455 -0.007923 -0.027662 -0.110403 0.074797 0.082338 -0.052951 0.129980 0.019814 0.121760 -0.130719 -0.074558 0.004336 -0.089960 0.005224 -0.025396 0.034542 -0.057962 -0.028865 0.050113 0.022678 -0.119648 -0.087657 -0.196452 0.025217 -0.011524 0.244037 -0.125747 0.042420 0.055812 -0.071620 0.059892 0.033532 0.074027 0.110957 0.037607 -0.024251 0.004455 -0.136418 -0.033021 0.045936 0.012994 -0.068722 0.052511 -0.012458 -0.103514 -0.074944 -0.081635 0.008711 0.059199 -0.131245 0.018427 0.028641 0.017803 -0.062912 0.006689 -0.008533 -0.008438 -0.007322 0.003812 0.048096 -0.049287 -0.059049 -0.036842 0.014042 -0.038908 -0.027278 0.039284 0.170410 -0.030903 0.028341 0.081370 -0.125738 -0.051234 0.039914 0.008610 0.017241 -0.050383 0.059284 -0.017105 0.055249 -0.030862 -0.076868 0.089147 -0.006707 0.088944 -0.102454 0.015364 0.052398 -0.014632 0.007904 0.019758 -0.050241 -0.008081 0.054161 -0.075529 -0.107840 0.048215 0.005171 0.071421 0.028440 -0.010378 -0.003248 0.146765 -0.007290 -0.013952 0.025112 -0.019197 -0.141834 -0.089126 0.005333 0.084321 0.017406 -0.081379 0.011183 0.141053 0.024302 -0.014713 0.101845 -0.017991 -0.017930 -0.017442 0.034966 -0.067028 0.070365 0.170489 0.019152 0.002405 -0.012823 -0.027065 0.017367 -0.089115 0.055083 0.090398 -0.110546 -0.011505 -0.057144 0.013052 0.015484 -0.029664 0.080976 0.027343 -0.082496 0.031528 -0.147039 -0.002142 0.150052 -0.108147 -0.071962 0.067457 0.095323 -0.023679 0.072421 -0.070916 0.053010 0.088983 0.083320 -0.039791 0.040181 0.076066 -0.024608 -0.035558 -0.093344 0.002816 0.010104 0.045197 0.107056 0.025250 0.065993 0.071621 0.004599 -0.057965 -0.067174 0.100597 -0.069029 -0.003765 -0.108530 0.002017 0.165067 0.083245 0.021716 0.172543 -0.096114 0.052856 -0.007266 -0.026801 -0.017369 0.023227 0.021803 0.099414 0.069988 0.011230 -0.085211 0.037837
